svm_type c_svc
kernel_type rbf
gamma 0.125
nr_class 2
total_sv 35
rho 3.32573
label 1 0
nr_sv 17 18
SV
128 1:-0.993667 2:-0.223698 3:-0.386173 4:-0.997441 5:-0.337085 6:-0.896876 7:0.949848 8:-0.955535 9:-0.968206 10:-0.956608 11:0.968207 12:-0.700367 13:-0.956857 
128 1:-0.936396 2:-0.228769 3:-0.411614 4:-0.994341 5:-0.33619 6:-0.870504 7:0.653978 8:-0.674571 9:-0.884876 10:-0.839464 11:0.884872 12:-0.563484 13:-0.863526 
21.81822006957585 1:-0.835436 2:-0.322701 3:-0.525204 4:-0.639285 5:-0.154197 6:-0.740629 7:0.270839 8:-0.562877 9:0.63234 10:0.0757703 11:-0.63234 12:0.006616 13:0.528188 
128 1:-0.99196 2:-0.216824 3:-0.385252 4:-0.995004 5:-0.307553 6:-0.834851 7:0.95344 8:-0.956823 9:-0.981079 10:-0.943017 11:0.981081 12:-0.578015 13:-0.974254 
128 1:-0.884338 2:-0.21341 3:-0.423598 4:-0.989246 5:-0.273116 6:-0.687921 7:0.7292 8:-0.743359 9:-0.92084 10:-0.687179 11:0.920839 12:-0.230631 13:-0.902937 
8.835016630216805 1:-0.874592 2:-0.346434 3:-0.532636 4:-0.691639 5:-0.04685 6:-0.766436 7:0.481337 8:-0.638366 9:-0.122288 10:-0.235718 11:0.122284 12:-0.127101 13:-0.0757091 
128 1:-0.935439 2:-0.229107 3:-0.410859 4:-0.994598 5:-0.334716 6:-0.87169 7:0.64461 8:-0.664113 9:-0.89096 10:-0.842413 11:0.890964 12:-0.564969 13:-0.871172 
128 1:-0.995858 2:-0.215852 3:-0.38071 4:-0.987061 5:-0.349943 6:-0.890168 7:0.918029 8:-0.928842 9:-0.939551 10:-0.932541 11:0.939548 12:-0.675509 13:-0.919359 
128 1:-0.999425 2:-0.220033 3:-0.369427 4:-0.997147 5:-0.332413 6:-0.975895 7:0.916328 8:-0.920319 9:-0.977686 10:-0.989287 11:0.97769 12:-0.911944 13:-0.970163 
81.32092152341272 1:-0.93314 2:-0.265946 3:-0.477265 4:-0.758184 5:-0.0377711 6:-0.69482 7:0.686335 8:-0.808021 9:-0.319841 10:-0.293441 11:0.319836 12:-0.118788 13:-0.215632 
75.924902348849 1:-0.856208 2:-0.101185 3:-0.0240752 4:-0.878723 5:-0.0238513 6:-0.693374 7:0.849748 8:-0.871079 9:-0.880768 10:-0.659291 11:0.880768 12:-0.212587 13:-0.846477 
94.80530525808308 1:-0.896754 2:-0.165026 3:-0.336163 4:-0.959441 5:-0.281215 6:-0.882564 7:0.250777 8:-0.284033 9:-0.814069 10:-0.775324 11:0.814071 12:-0.513602 13:-0.811475 
34.9162851758448 1:-0.952884 2:-0.218184 3:-0.336493 4:-0.932093 5:-0.199325 6:-0.737989 7:0.870754 8:-0.987874 9:-0.345372 10:-0.579515 11:0.345373 12:-0.310589 13:-0.184065 
128 1:-0.994586 2:-0.214763 3:-0.332915 4:-0.987169 5:-0.289814 6:-0.757947 7:0.96467 8:-0.969303 9:-0.974103 10:-0.915282 11:0.9741 12:-0.45594 13:-0.964597 
110.8862194982897 1:-0.992874 2:-0.20172 3:-0.34495 4:-0.721552 5:-0.650317 6:-0.708907 7:0.638991 8:-0.646841 9:-0.956088 10:-0.714051 11:0.956093 12:-0.193322 13:-0.947992 
12.43776331066921 1:-0.909864 2:-0.201753 3:-0.561594 4:-0.912382 5:-0.328233 6:-0.718914 7:0.790697 8:-0.90544 9:-0.35865 10:-0.461674 11:0.358645 12:-0.23075 13:-0.226316 
23.62353745203237 1:-0.994264 2:-0.212771 3:-0.33603 4:-0.725364 5:-0.658012 6:-0.709776 7:0.658076 8:-0.665818 9:-0.9567 10:-0.720146 11:0.956701 12:-0.200402 13:-0.948314 
-128 1:-0.946778 2:-0.245363 3:-0.340861 4:-0.988206 5:-0.349585 6:-0.865564 7:0.670272 8:-0.673142 9:-0.983935 10:-0.915305 11:0.983934 12:-0.563221 13:-0.980689 
-10.96636268605199 1:-0.857626 2:-0.0794995 3:-0.331915 4:-0.85943 5:-0.292103 6:-0.744537 7:0.271695 8:-0.271692 9:-0.999957 10:-0.970994 11:0.999953 12:-0.19295 13:-0.999956 
-0.05600392344784627 1:-0.641646 2:-0.592905 3:-0.274553 4:-0.615106 5:-0.435664 6:-0.721158 7:-0.494704 8:0.494722 9:-0.999994 10:-0.977499 11:0.999988 12:0.0877905 13:-0.999995 
-128 1:-0.990224 2:-0.211558 3:-0.368111 4:-0.968417 5:-0.329013 6:-0.663233 7:0.935792 8:-0.94904 9:-0.925942 10:-0.796651 11:0.925937 12:-0.304097 13:-0.900506 
-128 1:-0.987422 2:-0.230123 3:-0.367417 4:-0.958886 5:-0.334438 6:-0.648889 7:0.924338 8:-0.945081 9:-0.884055 10:-0.739982 11:0.884053 12:-0.272399 13:-0.845582 
-128 1:-0.991942 2:-0.218615 3:-0.368872 4:-0.960908 5:-0.330709 6:-0.635354 7:0.935723 8:-0.951747 9:-0.910427 10:-0.76533 11:0.910432 12:-0.267308 13:-0.879821 
-8.497854408948388 1:-0.545365 2:0.386397 3:-0.397442 4:-0.170307 5:-0.373214 6:-0.978657 7:0.888801 8:-0.900813 9:-0.932854 10:-0.721894 11:0.932859 12:-0.202271 13:-0.911655 
-83.76734070405278 1:-0.965103 2:-0.147116 3:-0.287621 4:-0.84119 5:-0.144181 6:-0.903102 7:0.659524 8:-0.661638 9:-0.988153 10:-0.924054 11:0.988155 12:-0.567156 13:-0.985817 
-128 1:-0.992728 2:-0.219023 3:-0.369999 4:-0.998954 5:-0.33222 6:-1 7:0.839558 8:-0.892225 9:-0.705614 10:-0.996417 11:0.705608 12:-1 13:-0.62778 
-34.82655689026573 1:-0.863153 2:-0.0523947 3:-0.375119 4:-0.792418 5:-0.338333 6:-0.983066 7:0.669578 8:-0.669577 9:-0.999977 10:-0.992388 11:0.999977 12:-0.633253 13:-0.999972 
-24.12603675941418 1:-0.566605 2:0.351789 3:-0.355459 4:-0.228882 5:-0.288153 6:-0.821486 7:0.000591724 8:-0.0103614 9:-0.945333 10:-0.492235 11:0.945336 12:0.120696 13:-0.948623 
-53.51985719884502 1:-0.990289 2:-0.240197 3:-0.37135 4:-0.962607 5:-0.329647 6:-0.948277 7:0.431631 8:-0.431638 9:-0.99992 10:-0.993378 11:0.999918 12:-0.773735 13:-0.999913 
-74.72611467974279 1:-0.988366 2:-0.217743 3:-0.370468 4:-0.999029 5:-0.332066 6:-0.9747 7:0.636562 8:-0.636569 9:-0.999936 10:-0.997404 11:0.999942 12:-0.890644 13:-0.999924 
-128 1:-0.870511 2:-0.326808 3:-0.456826 4:-0.743872 5:-0.122151 6:-0.706558 7:0.45372 8:-0.609674 9:-0.128294 10:-0.13406 11:0.128294 12:-0.0518009 13:-0.0907534 
-128 1:-0.91013 2:-0.266243 3:-0.464098 4:-0.973437 5:-0.276793 6:-0.78194 7:0.684324 8:-0.693037 9:-0.951271 10:-0.800786 11:0.951276 12:-0.375308 13:-0.941225 
-128 1:-0.988668 2:-0.223711 3:-0.382783 4:-0.996381 5:-0.365563 6:-0.827733 7:0.94874 8:-0.95308 9:-0.975734 10:-0.933269 11:0.975737 12:-0.562591 13:-0.967068 
-128 1:-0.988594 2:-0.215499 3:-0.388157 4:-0.991076 5:-0.326399 6:-0.839024 7:0.932991 8:-0.949301 9:-0.908829 10:-0.894163 11:0.90883 12:-0.572294 13:-0.877846 
-46.08204401620497 1:-0.984761 2:-0.2316 3:-0.397183 4:-0.990662 5:-0.337882 6:-0.853567 7:0.894264 8:-0.897391 9:-0.982516 10:-0.935245 11:0.982519 12:-0.593875 13:-0.976846 
