svm_type c_svc
kernel_type rbf
gamma 0.0078125
nr_class 2
total_sv 88
rho 0.501261
label 1 0
nr_sv 43 45
SV
0.5 1:-0.595061 2:-0.180134 3:0.400116 4:-0.557699 5:-0.473357 6:-0.704212 7:0.149461 8:-0.274769 9:-0.409791 10:0.339787 11:0.409787 12:0.222695 13:-0.408485 
0.5 1:-0.646254 2:-0.0358588 3:-0.0678071 4:-0.859294 5:-0.295497 6:-0.75692 7:0.695777 8:-0.934304 9:0.123463 10:-0.00828137 11:-0.123466 12:-0.0682817 13:0.276566 
0.5 1:-0.470617 2:0.146547 3:0.60283 4:-0.345259 5:-0.104653 6:-0.73079 7:0.103266 8:-0.373825 9:0.27434 10:0.779085 11:-0.27434 12:0.32607 13:0.21385 
0.5 1:-0.646674 2:-0.0157138 3:0.422474 4:-0.526846 5:0.0378194 6:-0.710857 7:0.58156 8:-0.824121 9:0.142463 10:0.42095 11:-0.142457 12:0.18248 13:0.252413 
0.4850040615100336 1:-0.692494 2:-0.0158797 3:0.241277 4:-0.440527 5:-0.077259 6:-0.700919 7:0.340662 8:-0.619087 9:0.311382 10:0.675402 11:-0.311382 12:0.274436 13:0.328062 
0.5 1:-0.68023 2:-0.120877 3:0.136917 4:-0.484576 5:-0.099903 6:-0.695103 7:0.297753 8:-0.48936 9:-0.0975219 10:0.525256 11:0.0975231 12:0.253705 13:-0.0748591 
0.5 1:-0.456415 2:-0.113977 3:0.00568557 4:-0.801134 5:-0.334891 6:-0.699296 7:0.37879 8:-0.529126 9:-0.291911 10:0.282903 11:0.29191 12:0.153459 13:-0.24852 
0.5 1:-0.682287 2:-0.157119 3:0.349823 4:-0.464999 5:-0.501718 6:-0.695566 7:0.143754 8:-0.284002 9:-0.339413 10:0.436335 11:0.339418 12:0.260631 13:-0.341656 
0.5 1:-0.479828 2:0.00683201 3:0.162283 4:-0.859272 5:-0.370735 6:-0.71593 7:0.472675 8:-0.69119 9:0.0292068 10:0.287192 11:-0.0292093 12:0.0967124 13:0.100437 
0.5 1:-0.49472 2:0.139037 3:0.599716 4:-0.342431 5:-0.10385 6:-0.729931 7:0.110829 8:-0.376214 9:0.249966 10:0.763346 11:-0.24997 12:0.321239 13:0.194575 
0.5 1:-0.56215 2:-0.00573882 3:0.501985 4:-0.702632 5:-0.0164112 6:-0.698211 7:0.632433 8:-0.827139 9:-0.0829318 10:0.2718 11:0.0829343 12:0.136398 13:0.0357981 
0.5 1:-0.71858 2:-0.0134676 3:0.267429 4:-0.419381 5:-0.063037 6:-0.705672 7:0.329598 8:-0.585203 9:0.203912 10:0.628919 11:-0.203907 12:0.262219 13:0.223182 
0.5 1:-0.651173 2:-0.131203 3:0.124401 4:-0.50013 5:-0.10222 6:-0.694897 7:0.295097 8:-0.48738 9:-0.0943352 10:0.529676 11:0.0943389 12:0.255536 13:-0.072454 
0.5 1:-0.978391 2:-0.0209354 3:0.208748 4:-0.996922 5:-0.337085 6:-0.905214 7:0.936869 8:-0.94419 9:-0.965506 10:-0.927474 11:0.965507 12:-0.695852 13:-0.954111 
0.5 1:-0.0151695 2:0.0959269 3:-0.201256 4:-0.749983 5:-0.440919 6:-0.723344 7:0.217632 8:-0.495154 9:0.307133 10:0.704481 11:-0.307133 12:0.283747 13:0.2807 
0.5 1:-0.665288 2:-0.165764 3:0.384496 4:-0.487253 5:-0.508219 6:-0.695932 7:0.169139 8:-0.299327 9:-0.386802 10:0.392672 11:0.3868 12:0.249195 13:-0.382957 
0.5 1:-0.45619 2:0.00881567 3:0.17791 4:-0.835492 5:-0.394001 6:-0.723912 7:0.431498 8:-0.687697 9:0.206703 10:0.357796 11:-0.206698 12:0.11009 13:0.261307 
0.5 1:-0.63016 2:-0.0241708 3:0.444008 4:-0.61714 5:0.0323854 6:-0.691898 7:0.628016 8:-0.816529 9:-0.112107 10:0.306656 11:0.112112 12:0.163252 13:0.00339435 
0.5 1:-0.647131 2:-0.129998 3:0.119001 4:-0.50425 5:-0.102863 6:-0.694232 7:0.302696 8:-0.49893 9:-0.07573 10:0.537336 11:0.0757286 12:0.256488 13:-0.0524376 
0.5 1:-0.778982 2:-0.0273305 3:0.15865 4:-0.991621 5:-0.33619 6:-0.875762 7:0.55594 8:-0.582456 9:-0.875099 10:-0.716418 11:0.875094 12:-0.493699 13:-0.854842 
0.5 1:-0.0298087 2:0.0151898 3:-0.264685 4:-0.839253 5:-0.384451 6:-0.695795 7:0.36935 8:-0.589893 9:0.0387643 10:0.587243 11:-0.0387619 12:0.267885 13:0.077659 
0.5 1:-0.802855 2:-0.0906924 3:0.275238 4:-0.39346 5:-0.495819 6:-0.695598 7:0.131035 8:-0.276549 9:-0.314609 10:0.452632 11:0.314605 12:0.262765 13:-0.320246 
0.5 1:-0.68748 2:0.00882397 3:0.426116 4:-0.29893 5:-0.0792552 6:-0.721455 7:0.13107 8:-0.396741 9:0.251304 10:0.73914 11:-0.251302 12:0.308117 13:0.202086 
0.5 1:-0.694326 2:-0.0517175 3:0.152997 4:-0.6161 5:-0.228258 6:-0.682571 7:0.446611 8:-0.702365 9:0.204601 10:0.542058 11:-0.204605 12:0.223322 13:0.264703 
0.5 1:-0.650849 2:-0.125024 3:0.116649 4:-0.497994 5:-0.0996873 6:-0.69404 7:0.309882 8:-0.513507 9:-0.0409122 10:0.554164 11:0.0409058 12:0.259671 13:-0.0167988 
0.5 1:-0.770576 2:-0.0594581 3:0.210878 4:-0.378273 5:-0.502168 6:-0.688493 7:0.149623 8:-0.341472 9:-0.0963687 10:0.616728 11:0.0963687 12:0.303342 13:-0.110456 
0.5 1:-0.487786 2:0.144249 3:0.597246 4:-0.328583 5:-0.10548 6:-0.726706 7:0.0884468 8:-0.352544 9:0.24391 10:0.790241 11:-0.243906 12:0.336525 13:0.182307 
0.5 1:-0.695926 2:-0.102585 3:0.15401 4:-0.457382 5:-0.0876928 6:-0.698666 7:0.300991 8:-0.512478 9:-0.00388829 10:0.565719 11:0.00388824 12:0.258732 13:0.0164106 
0.5 1:-0.794673 2:-0.101408 3:0.293122 4:-0.398826 5:-0.505441 6:-0.693351 7:0.146003 8:-0.286202 9:-0.339642 10:0.441057 11:0.339647 12:0.263729 13:-0.341474 
0.5 1:-0.28339 2:0.0517346 3:0.916009 4:-0.732512 5:-0.123317 6:-0.689447 7:0.709891 8:-0.971848 9:0.233812 10:0.409329 11:-0.233808 12:0.204376 13:0.397931 
0.5 1:-0.49724 2:0.139796 3:0.585235 4:-0.323731 5:-0.108997 6:-0.730809 7:0.0709072 8:-0.3419 9:0.276382 10:0.789591 11:-0.276382 12:0.330998 13:0.205564 
0.5 1:-0.717014 2:-0.0897912 3:0.171544 4:-0.460595 5:-0.0901218 6:-0.698201 7:0.314905 8:-0.52462 9:-0.0122369 10:0.548989 11:0.0122356 12:0.251247 13:0.0122971 
0.5 1:-0.527539 2:0.126923 3:0.582701 4:-0.31856 5:-0.0898962 6:-0.727534 7:0.119963 8:-0.386721 9:0.256436 10:0.775478 11:-0.25644 12:0.327094 13:0.203183 
0.5 1:-0.523196 2:0.128285 3:0.585831 4:-0.321417 5:-0.091874 6:-0.727692 7:0.119033 8:-0.385865 9:0.256785 10:0.775078 11:-0.256782 12:0.326804 13:0.203202 
0.5 1:-0.690624 2:-0.115643 3:0.146182 4:-0.48526 5:-0.10098 6:-0.69559 7:0.302787 8:-0.494556 9:-0.0967582 10:0.518088 11:0.0967619 12:0.249481 13:-0.0728196 
0.5 1:-0.821848 2:-0.0877169 3:0.296991 4:-0.396833 5:-0.508761 6:-0.694314 7:0.159963 8:-0.290552 9:-0.384918 10:0.39721 11:0.384923 12:0.251418 13:-0.38268 
0.5 1:-0.20436 2:0.00274369 3:0.997211 4:-0.778248 5:-0.262226 6:-0.690207 7:0.708593 8:-0.967858 9:0.221132 10:0.40645 11:-0.221135 12:0.203492 13:0.384159 
0.5 1:-0.527286 2:0.128195 3:0.578481 4:-0.310575 5:-0.103395 6:-0.726799 7:0.0815813 8:-0.348448 9:0.256947 10:0.791769 11:-0.256947 12:0.335261 13:0.191733 
0.5 1:-0.747725 2:-0.0940168 3:0.191129 4:-0.449397 5:-0.0929991 6:-0.697718 7:0.290871 8:-0.47 9:-0.156297 10:0.486052 11:0.156297 12:0.243054 13:-0.13376 
0.5 1:-0.847735 2:-0.0602594 3:0.275482 4:-0.387273 5:-0.509775 6:-0.691958 7:0.169546 8:-0.296402 9:-0.402497 10:0.387025 11:0.402493 12:0.251341 13:-0.398136 
0.5 1:-0.206746 2:0.0102845 3:0.993153 4:-0.776553 5:-0.251299 6:-0.689821 7:0.714136 8:-0.979704 9:0.25082 10:0.409742 11:-0.25082 12:0.204606 13:0.417478 
0.5 1:-0.429376 2:0.154409 3:0.633501 4:-0.360863 5:-0.12109 6:-0.723578 7:0.0995006 8:-0.367512 9:0.262342 10:0.80941 11:-0.262339 12:0.344304 13:0.202045 
0.5 1:-0.816872 2:-0.0479083 3:0.267906 4:-0.416861 5:-0.0890392 6:-0.700119 7:0.282791 8:-0.438861 9:-0.26491 10:0.417022 11:0.264914 12:0.227969 13:-0.242105 
-0.5 1:-0.627866 2:-0.335327 3:-0.65177 4:0.0180845 5:0.799312 6:0.783188 7:0.771605 8:-0.771984 9:-0.998211 10:-0.283307 11:0.998211 12:0.898447 13:-0.997749 
-0.5 1:-0.999391 2:-0.0146515 3:0.240097 4:-0.968566 5:-0.332341 6:-0.999083 7:0.222862 8:-0.222893 9:-0.99983 10:-1 11:0.999835 12:-1 13:-0.999819 
-0.5 1:-0.957154 2:-0.0308873 3:0.23795 4:-0.983406 5:-0.329981 6:0.292613 7:0.985162 8:-0.985839 9:-0.996801 10:-0.751564 11:0.996803 12:0.455253 13:-0.995657 
-0.5 1:-0.922449 2:-0.0647012 3:0.251473 4:-0.895414 5:-0.341907 6:0.0481915 7:0.929386 8:-0.929387 9:-0.99999 10:-0.956181 11:0.999987 12:0.501399 13:-0.999987 
-0.1376462741234157 1:-0.641368 2:-0.380458 3:-0.629632 4:0.376079 5:0.991513 6:0.77405 7:0.714863 8:-0.715154 9:-0.99862 10:-0.2869 11:0.998617 12:0.986737 13:-0.998297 
-0.09191204714142345 1:0.924557 2:0.995852 3:0.215894 4:0.992156 5:-0.350679 6:-0.95674 7:0.710885 8:-0.710885 9:-0.999984 10:-0.953995 11:0.999987 12:0.340634 13:-0.99998 
-0.5 1:-0.996865 2:-0.0113088 3:0.240194 4:-0.958843 5:-0.331693 6:-0.996637 7:0.0663876 8:-0.0664232 9:-0.999817 10:-0.9988 11:0.999822 12:-0.97677 13:-0.999815 
-0.5 1:-0.935491 2:-0.0424788 3:0.108673 4:-0.962287 5:-0.225607 6:0.44529 7:0.976772 8:-0.977376 9:-0.997149 10:-0.692 11:0.997146 12:0.490253 13:-0.996142 
-0.5 1:-1 2:-0.0154983 3:0.240487 4:-0.960741 5:-0.330372 6:-1 7:0.00935966 8:-0.00939779 9:-0.9998 10:-0.999463 11:0.999797 12:-0.99616 13:-0.999801 
-0.5 1:-0.988191 2:0.0435465 3:0.240444 4:0.142106 5:-0.332037 6:-0.967062 7:0.328283 8:-0.328282 9:-0.999981 10:-0.979519 11:0.999975 12:-0.235362 13:-0.999979 
-0.5 1:-0.953218 2:-0.0303934 3:0.269251 4:-0.981864 5:-0.235718 6:0.217018 7:0.983891 8:-0.984653 9:-0.996397 10:-0.750087 11:0.996397 12:0.446492 13:-0.995112 
-0.5 1:0.775557 2:-0.822479 3:0.219814 4:0.361087 5:-0.318702 6:-0.956417 7:0.623297 8:-0.623321 9:-0.999881 10:-0.921619 11:0.999886 12:0.193195 13:-0.999858 
-0.2554457402451944 1:0.809256 2:-0.837961 3:0.506639 4:0.38765 5:-0.51058 6:-0.708392 7:-0.582408 8:0.582393 9:-0.999894 10:-0.865978 11:0.999899 12:0.76597 13:-0.999909 
-0.5 1:-0.950933 2:-0.0462288 3:0.250148 4:-0.939819 5:-0.336554 6:0.0345896 7:0.957832 8:-0.957831 9:-0.999996 10:-0.976064 11:1 12:0.444666 13:-0.999995 
-0.5 1:-0.613531 2:-0.368575 3:-0.605839 4:0.195985 5:0.815301 6:0.711476 7:0.719059 8:-0.719447 9:-0.998169 10:-0.253612 11:0.998173 12:0.984796 13:-0.997737 
-0.5 1:-0.998481 2:-0.0128933 3:0.24011 4:-0.957559 5:-0.332259 6:-0.999188 7:-0.0520532 8:0.0520207 9:-0.99982 10:-0.999311 11:0.999822 12:-0.988043 13:-0.999823 
-0.5 1:-0.954775 2:-0.0323442 3:0.226766 4:-0.980628 5:-0.323977 6:0.323684 7:0.984001 8:-0.98469 9:-0.996743 10:-0.737918 11:0.99674 12:0.462328 13:-0.995581 
-0.5 1:-0.952271 2:-0.0449666 3:0.246607 4:-0.943579 5:-0.337846 6:0.0300361 7:0.959828 8:-0.959827 9:-0.999994 10:-0.970305 11:0.999987 12:0.438973 13:-0.999991 
-0.5 1:-0.804878 2:-0.28478 3:-0.361877 4:0.378823 5:0.899565 6:0.721 7:0.708539 8:-0.708918 9:-0.998196 10:-0.24266 11:0.998199 12:1 13:-0.997778 
-0.5 1:0.443269 2:0.607189 3:0.220458 4:0.00901336 5:-0.344483 6:-0.956821 7:0.515668 8:-0.515664 9:-1 10:-0.998948 11:1 12:0.0481722 13:-1 
-0.5 1:0.459503 2:0.614283 3:0.460177 4:0.0206062 5:-0.192131 6:-0.729312 7:-0.825951 8:0.825947 9:-0.999959 10:-0.921442 11:0.999962 12:0.584786 13:-0.999967 
-0.5 1:-0.9407 2:-0.0410943 3:0.129183 4:-0.963452 5:-0.261486 6:0.45003 7:0.977569 8:-0.978183 9:-0.997097 10:-0.692635 11:0.997095 12:0.488183 13:-0.996071 
-0.5 1:-0.941047 2:-0.0513422 3:0.254675 4:-0.930055 5:-0.344744 6:0.0190913 7:0.949584 8:-0.949584 9:-0.999997 10:-0.977089 11:1 12:0.453277 13:-0.999996 
-0.5 1:-0.815133 2:-0.0482583 3:0.297976 4:-0.98113 5:-0.349585 6:-0.870245 7:0.576919 8:-0.580616 9:-0.982571 10:-0.853059 11:0.98257 12:-0.493311 13:-0.97946 
-0.5 1:-0.0818619 2:0.345641 3:0.228304 4:-0.464481 5:-0.338995 6:-0.957511 7:0.173244 8:-0.17325 9:-0.999947 10:-0.968276 11:0.999949 12:-0.221387 13:-0.999945 
-0.5 1:-0.866645 2:-0.234573 3:-0.24056 4:0.340107 5:0.847341 6:0.674868 7:0.711523 8:-0.711978 9:-0.997842 10:-0.221726 11:0.997843 12:0.99648 13:-0.997339 
-0.5 1:-0.0736683 2:0.348752 3:0.379445 4:-0.460071 5:-0.251486 6:-0.732845 7:-0.762604 8:0.7626 9:-0.999956 10:-0.939624 11:0.999949 12:0.313823 13:-0.999964 
-0.5 1:0.673844 2:-0.752385 3:0.215185 4:0.203045 5:-0.316018 6:-0.956481 7:0.586675 8:-0.586674 9:-0.999979 10:-0.961625 11:0.999975 12:0.139368 13:-0.999976 
-0.5 1:-0.800385 2:-0.124056 3:-0.306647 4:-0.78584 5:0.106929 6:0.693628 7:0.924923 8:-0.925362 9:-0.99792 10:-0.520679 11:0.99792 12:0.611209 13:-0.997238 
-0.5 1:-0.986981 2:-0.0155106 3:0.227176 4:-1 5:-0.334679 6:-0.29181 7:0.994899 8:-0.994898 9:-0.999996 10:-0.994617 11:1 12:0.186244 13:-0.999995 
-0.5 1:0.648689 2:-0.725926 3:0.217598 4:0.134938 5:-0.317905 6:-0.956954 7:0.573601 8:-0.573605 9:-0.999957 10:-0.950841 11:0.999962 12:0.116406 13:-0.999949 
-0.5 1:-0.508083 2:0.159671 3:0.235182 4:-0.762656 5:-0.334637 6:-0.957782 7:-0.677077 8:0.677073 9:-0.999953 10:-0.983342 11:0.999949 12:-0.479809 13:-0.999961 
-0.5 1:-0.922093 2:-0.175357 3:-0.111913 4:0.222672 5:0.756975 6:0.655051 7:0.731153 8:-0.731573 9:-0.998015 10:-0.274381 11:0.998021 12:0.966865 13:-0.997537 
-0.5 1:-0.50472 2:0.160927 3:0.315591 4:-0.760903 5:-0.292103 6:-0.735084 7:0.0637561 8:-0.0637594 9:-0.999954 10:-0.953391 11:0.999949 12:0.0535148 13:-0.999953 
-0.5 1:0.384692 2:-0.564201 3:0.217327 4:-0.195788 5:-0.318765 6:-0.957312 7:0.449727 8:-0.449726 9:-0.999986 10:-0.974049 11:0.999987 12:-0.0255151 13:-0.999984 
-0.5 1:0.428067 2:-0.587037 3:0.439216 4:-0.153609 5:-0.448853 6:-0.713492 7:-1 8:1 9:-0.999972 10:-0.934508 11:0.999975 12:0.557194 13:-0.999978 
-0.5 1:-0.790551 2:-0.298776 3:-0.426617 4:0.421707 5:1 6:0.790594 7:0.721252 8:-0.721615 9:-0.998271 10:-0.232082 11:0.998275 12:0.976671 13:-0.997862 
-0.5 1:0.479188 2:0.631792 3:0.462189 4:0.0636585 5:-0.188441 6:-0.728323 7:-0.799814 8:0.799813 9:-0.999957 10:-0.918516 11:0.999962 12:0.60177 13:-0.999965 
-0.5 1:0.254902 2:-0.48944 3:0.22408 4:-0.339037 5:-0.323081 6:-0.958041 7:0.370707 8:-0.370712 9:-0.999956 10:-0.963699 11:0.999949 12:-0.100905 13:-0.999951 
-0.5 1:0.247288 2:-0.486575 3:0.42855 4:-0.343071 5:-0.435664 6:-0.708974 7:-0.922971 8:0.922978 9:-0.999994 10:-0.965111 11:0.999987 12:0.468119 13:-0.999995 
-0.5 1:-0.360325 2:0.219974 3:-1 4:-0.670027 5:-1 6:0.933387 7:0.874088 8:-0.87431 9:-0.998941 10:-0.475997 11:0.998934 12:0.683676 13:-0.99862 
-0.5 1:-0.76413 2:-0.310258 3:-0.43735 4:0.366512 5:0.921402 6:0.731075 7:0.712714 8:-0.713093 9:-0.998193 10:-0.240109 11:0.998199 12:0.99345 13:-0.997771 
-0.5 1:0.676367 2:0.753147 3:0.218866 4:0.322401 5:-0.346378 6:-0.956979 7:0.610835 8:-0.610831 9:-0.999999 10:-0.988238 11:1 12:0.167558 13:-0.999999 
-0.5 1:0.698284 2:0.76323 3:0.497329 4:0.339763 5:-0.158532 6:-0.726066 7:-0.561666 8:0.561657 9:-0.999921 10:-0.885234 11:0.999924 12:0.708882 13:-0.999932 
-0.5 1:-0.998561 2:-0.0186434 3:0.239571 4:-0.999475 5:-0.332204 6:0.0059888 7:1 8:-1 9:-0.999994 10:-0.994924 11:1 12:0.338487 13:-0.999992 
